13 100
that -0.01794511776324391 0.5454699436883688 0.8748002880707653 -0.14442557378856383 -0.3104713905102834 -0.4899058506199624 2.3600518539198756 0.27663031050240194 -1.3249686007529322 0.3008733785994187 0.7159049382535414 -0.625341277863976 -1.2459853527179408 0.03726638023383294 -1.1868428141693623 -0.19417667490835894 -0.2887835493135422 -0.5044600868178946 -0.22102811649116244 -0.28094477131977996 -0.13641772176011002 -0.6551281795862559 -0.33210389770679927 -0.25269005481212176 0.8104074206598305 0.14519083834294427 0.45398015366276195 0.9686208064012587 -0.07639193726732843 1.2035671447074754 -1.3539064431918437 0.4755999256533626 -1.481145569964366 -0.25787172114523005 -0.14840659310894205 0.024272399696457336 0.16776873127438388 -0.42733670041426536 0.6653786820338989 -0.32995955591428544 -0.975660554892504 0.2151522231055282 -0.7124958704798657 -0.7858407670941643 0.03240670922657371 0.5203177980302894 -0.2757795457671566 1.383300115314581 0.22056797197755934 -0.006319964935812841 -0.44538810097107245 0.3143105513171017 0.40484893019703755 0.33743656392704513 0.24396354173599827 -1.2837922985056915 0.42079277774217644 -1.9713247455031 -0.4176141615142606 0.5792386061038914 1.3177211371617559 0.272357972286549 0.060633399520807464 -1.2176340285786824 -0.2418998382768129 -0.6960011069888429 0.6407974352296203 -0.4258598221905856 0.16061848902836012 -0.7863014113403022 0.577144993896453 0.9927868988158696 -1.0326247126802517 -0.2812237707959907 -0.40826726836845995 0.7026036078445875 0.1796924459918285 0.1808860344813219 0.6572265123310097 -0.9164912852856989 1.421976377029534 -1.7000901195909632 1.1124947721645766 -0.3122092981398525 -0.22288896139970765 0.5720236320885863 1.0979114901700922 -0.72549666252706 -0.5103567758061929 -0.669773189196633 -0.4688203340897954 0.4224447912902615 0.692226665309003 0.2457936258021625 -0.4087751016497297 0.5607048459140092 -0.09891007690297061 -0.9899515147891607 0.4950729395568687 -1.5919259357903437
with -0.6904678265368569 -0.5998315771360636 1.0167311066285045 -0.25852801933137615 -1.7026451277978047 0.9570610955050681 0.34878979470814475 -1.15720310977424 0.8566984291047033 -1.562422906672226 -0.12652624937615833 -2.8178465183043446 -1.7032405969730067 1.1839799052906719 -0.9230357558350116 3.037661760026257 1.1357395360422164 0.8872497177170175 -0.37271551504405703 0.933488481491652 -0.03992794955952561 -2.679340301549757 1.9979092582303954 -0.9937512356421236 1.1143062916048074 0.21053769028786767 -0.5677576900891453 1.005472689335829 -0.5088557918186437 0.3039765034473283 0.5576907490956013 0.09081266416730915 0.16384307117847915 -0.5096701720920379 -0.1970718186147709 0.9631087805358052 1.7719849194667514 1.352078668619548 1.6555534523891235 2.5627823626495574 0.9804860429697396 -2.2581846337067106 -0.6469500731318433 -0.9068555409398369 -0.459916599956547 -0.8163118311048424 0.23808479263082313 0.5766416685257931 0.48708036592897536 -0.3129431779289578 -0.5072596295965607 -1.2405890741630734 1.4474094777872932 0.3214742016376164 -0.0101526786637391 1.5801820343037567 0.362042714561253 1.2282207571595587 -0.2416530246963285 0.10811468721293835 -1.4283276709360835 -0.07468345580259285 -0.9751948267251322 -1.1192765895375447 -0.46804981453032246 1.3247467334156675 -0.4420968602244049 -0.7334851457245974 1.1521125262393015 1.2876206863426507 -0.5715678795624093 -0.6865740273354061 -0.11435647541728744 0.6500334175241692 -0.3597579835145247 -0.6661296194083727 0.28524371862252 0.0939855506644598 -1.08082993875122 -1.4343926462743157 -1.387472938041572 0.5030270722005713 -0.826243037493474 -1.594051176919085 0.3170457780707742 -1.7325574736204896 -0.5749621856531195 -1.6724946626720185 -0.38885161964679194 -0.8629908839560019 0.03352199433942671 -0.14285976370861314 0.7427260449438602 -0.09932987382971922 0.7833934694052058 1.1673609800425797 1.6924774538392424 0.9164773587498103 -1.5820653055488747 2.3871658277060552
which 0.4708969672406089 0.5547570626001119 -0.24972339631167337 -0.5385255469307109 0.04878173289231211 1.2548830344966149 0.06720601242269288 0.32853320070778524 -0.8461444621115748 0.4585475868828431 -1.0014884600313707 -0.5586985166335072 -0.10423963638455155 0.9445003635121074 -0.3451156766037494 -0.6841759393870424 0.9130537817430526 1.203925440316047 0.2954398869010571 -0.4097651906313034 -2.265413676750497 0.21175715466705525 -1.5602864519517945 0.23444753106625044 0.6765710320718789 -0.01343531944747816 1.245848274094662 1.2308239037447035 -0.7160498817081701 1.289502379730974 -0.5813929045928294 -0.07386823588488067 -1.5570862981519271 -1.319089744445401 -0.24346980264263346 0.9557358051863789 1.4304541196010288 0.19298079221979264 0.16815168382394563 0.1947053192056391 -0.4917814953393576 0.33485896184573394 -0.9732335876315076 -0.008761158802776715 0.8483187175120962 -0.14700525485285876 0.4209510530401783 -0.05475793689741887 -0.6963477427631938 -0.6276225770616864 0.02329698957076716 -0.8309280195518672 0.43316510017422566 -0.042688109320292225 -1.207537514815935 -1.817750256727127 0.016694561297922492 -1.0853210128218256 -1.002456366561868 -0.6199445003185329 -0.057517333571409826 -0.7344163340107532 0.4463661164015462 -0.16232563444463782 -0.05842589361281145 0.9518227631931945 -0.10619365524689259 0.7213668988577695 0.7650880044116037 0.7869681346916497 0.920008672828643 0.9804287101867192 -0.14744848385524878 0.21606175172455144 -0.965939113327719 0.4234782154076064 -0.010528979154035986 1.7119729859755388 -0.19072931061363144 0.571226879635108 0.8900800242615895 -0.4847038183118952 0.6659010703251295 -0.28479379066680094 0.2971912324775125 -1.17325240178974 -0.18348634425011195 -1.2160402664241547 0.8527990064165549 -2.087404815325783 -1.594888955963651 0.2845659560889981 0.7163351943998844 -0.8126307575997083 -0.791506412672965 -0.47921754049384296 0.40675686706250913 0.5958562855038081 1.278977909249099 -0.7231264877770379
from -2.31399940650817 -0.8951359351415873 -0.35318120480624127 0.6935673402324514 0.29886835334233197 -1.935874955386808 1.1924907996901395 -0.3773919230582794 0.7626650686234411 0.36367529102636725 -0.1723087558420702 1.2391225878930126 0.1558131339916539 0.2491894728375164 2.059723481454417 0.0918664400518347 1.4667843291711837 -1.6169786953879934 -1.0334601522949574 2.7468073301015763 -0.7046413769839565 -0.7880692468050364 2.3702439769346193 1.886091880164456 -2.052816072439382 0.9738506559193527 0.05750430212696484 -0.4727996891088426 -0.12709808541491144 2.388918754891191 0.6682288145291035 -1.1042422841626163 -0.8152647706708479 0.3373173957499688 2.5724041778795224 1.3350356842604756 0.006570193477648114 -2.53706873223647 -3.079671271426794 2.690271929452536 0.21548580395511413 0.6267394800437472 1.9318059612423937 -0.3591844315018944 0.9609163022365225 0.04914068944445494 -0.71519926236376 -0.2578266067828158 -0.9388522798687541 -0.6410540665293073 -1.553943239082187 -1.3457652845665158 -1.0199373096654045 -1.1820014942108485 -1.003313643584856 0.8417026584645233 -0.579839895759792 0.4231663011639991 0.4711421732673861 -1.265126692644125 -1.050532928351855 2.351553471706715 -0.8756584674149821 0.7558738525858683 0.7137820817747618 -1.228944415342267 -0.3972520540300995 0.6392428444258542 -0.18160553520784212 -1.127624369809693 -0.020828766320975134 -0.20709981808638647 -0.9132888228639675 0.3222927929771645 -1.2996770231215726 -0.17485386185717938 -0.15791077286164518 0.523814146034514 -1.039168914657592 0.9864931550409918 0.4828173115445332 0.6406181957815039 1.002311354367488 2.198580568419355 -0.9883063584219549 -0.7204656581488404 1.1478883158842035 0.813072251409555 0.6067250451586204 -2.5812760273313984 -0.5462054616341985 -0.09344871273329042 -1.8115748593301266 -1.9012029617127149 1.3090301423788386 0.10031582785523235 2.12806211818403 -1.3555633063998784 0.8515385772407371 -1.1855235863182978
this 0.07420622605923534 0.6005339662294149 -0.6011663740977375 -1.713441248081605 1.2235194992773906 0.33025736954719764 2.1227381065138697 0.4579134864476839 -0.9931248669653956 0.42644684978796393 0.8081021180478529 0.3768589083886181 -1.894832813464706 -0.29563028450482215 0.4428400843520611 -0.1676061461627077 0.3929657349538833 0.5035861527965921 0.9893641947242382 -0.905445582419786 -0.6494679799197475 -0.5621658251646403 1.0965136989194824 1.247197083792996 0.6598237958200478 0.3795713368714248 -0.08516823663035938 0.7353319818430006 -0.11572888685419672 -0.6975345041000502 -0.7412413264048869 -0.4816347251969334 -1.7976717445096542 -1.2191450337138947 1.2946422416917782 -0.3307421033057094 1.1462312783382114 -0.06131479904517051 0.7541625422405029 0.12174275572073195 -0.9231489820546744 0.07448481067548021 -1.224231011757179 -0.05752912408974685 0.2488301015224111 0.0008557888369137368 -0.7455355231593532 1.0293642775689145 0.45141521147188307 -0.0549876081550454 -0.3401428087843354 0.243038017930156 1.7810434966853035 0.15208025987755325 1.0831536224979077 -2.0984908754328764 -1.3007705316888996 -0.22606024512353753 -1.229096352600076 -0.3795857602272091 -0.5452231081766841 -0.2869041841999622 -1.5089262872964213 0.07267844042690225 -0.470483650990436 -0.9251623695010499 -0.49917560916582643 1.1380266116492124 -0.04575322812661958 -0.1097010892129599 0.15053355550286024 1.7333436157348148 -1.1023736507639004 -0.5828741757261054 0.2704942138703096 1.6921732122414077 -0.4942462158219075 0.7900235397742144 1.2395246421279915 -1.0631404671285027 0.64278267766964 0.02380604671875116 0.8624445850536756 -0.8747351712122979 -1.2019115239035223 -1.4235766510573182 0.7768780719915338 -0.20440142017576649 0.21870557279800942 -0.1387317980027662 0.8857501441111171 0.8385612077445768 -0.3677677938432186 -0.2972360103424756 0.15624549682143501 -1.2114104442509384 -0.8221414197569489 -0.18531479794650932 -0.2504632983982247 -0.08683240783254655
have -0.8652428309237588 0.3133970538835287 0.954626643051234 -2.860397691868226 1.2487121176474467 0.1577931776335929 0.6799985602148891 1.2443773431447664 0.17387552362384168 -0.16631234220193475 -0.3680453428896471 -0.3274144943022694 -2.1414308187595057 -0.5968584054278645 -2.6770845801453143 -0.31374907595511187 0.27693098878383937 -0.7681633734656912 0.6085883854362133 -0.6270499892534347 -1.3062339177249234 0.7642539157506582 0.2508249982435181 -0.9383575398108248 0.39820303585605854 0.7465399388134872 1.730682349068722 -1.9433464711255968 -0.32664928032114615 0.37223303063276836 -0.196768766118365 -0.34493761168298687 -2.273884484454112 -0.16680992042692258 -1.8283195178754825 0.9969649340239644 1.0726705636165317 -0.6246945337997329 2.1766875904964236 -1.6424743378661897 1.0907368140154245 -1.0979760508285976 -0.45328295935086793 -0.7814732963528923 -1.336805918184315 0.9824667624353493 1.2829132969547825 0.11858249172315799 -0.8025613124043071 -0.4724430764818524 -1.047078095306247 -0.7869647660537898 0.5014609068205726 -0.3777994740425441 -0.1804284879070605 -1.311666649053482 1.299328555072575 -1.7028015292555414 0.6605101828346468 -0.9936509603176173 -0.47067587697932683 -0.9449307602421375 1.5354403108328512 -0.5229736927994925 1.7783706285276915 -1.0756884162539797 -0.943679929787317 -0.24532665521580269 -0.49458070343599153 -3.1540752422309577 -0.3307958706665352 -0.12291542852497175 1.1318584172979282 -0.695146617113282 -1.7576036540953885 0.4845241899006331 -1.2648589921013569 -1.7343513624741682 1.5759642516555794 1.123540684261573 2.678269077797051 0.6207942869756568 0.7607101256534986 0.11343741952027658 1.3892318457711603 -0.18571007057102062 -0.9584213364442877 2.0972610584202056 0.2522810182115989 -0.9221341291761862 -0.4934472745786107 2.1899478144378444 0.3325987031965763 -0.5712008326348035 -0.2835374467551393 0.5639793462840348 0.7537006031388641 -1.3660573001590337 1.2743307735145408 0.09792646582384555
they 0.3131696363175285 0.32044884960458275 1.977586471428004 -0.1389337135776683 1.8045481991522685 0.34044201519996864 0.3349383011111141 -0.2827650921675047 0.11719495606126157 -0.6176008932940825 1.0725010505048231 0.014154929373267733 -0.3025430676570583 0.9456925756169048 -1.2090760619263203 -0.7751372764765809 0.32456320619106593 1.8813701367424387 -0.021754862700128233 -1.2613539762796493 -0.578084563267068 -0.10497632250445522 0.6346668704587891 -0.017955609001803763 -0.9216987285367942 -1.714603137606343 1.2637219189234583 1.5481170708589613 -0.18881115509226434 -0.07894777388807707 0.4126003479229634 0.959277432100201 0.5752498415270281 0.7857939859661286 -1.5465225856550235 -0.11118344243342881 -1.7366516743519131 0.016280226255809105 0.10041291517931472 -0.060131593992593546 0.8026675658159615 -1.041348300431869 1.0705038238675157 -0.40181778616574326 0.19641413453480125 0.6451112679361427 -1.0357401673625393 -0.07597390100612439 0.5918559735148824 -0.33624612044337737 -2.364698134292453 -0.3245121755882442 -1.0007088512608635 0.03404895927320982 0.891834335674635 -3.473266523549942 -1.147248159443111 -1.567556206074389 0.23860518679716364 -0.361867802730566 0.0056629249261859645 0.43058356823762933 2.09847925603091 -0.009392074132843549 1.7678768731871153 0.06854662846380909 -1.0698948512617736 -1.0871226026185183 0.27129093685879874 -1.8989283811546027 0.3168251351070091 -0.1065052025226362 1.0537291257635044 1.2400415571344598 -1.2123458473174344 0.19688700086998584 0.544174520967796 -0.36817112136622754 -0.02506027172183914 0.9012073126223211 1.1325953498078543 0.087838513800894 -1.6061661188914842 -0.16886826814566275 -1.2288428097616766 -0.5906749348250184 0.6556866895833917 -1.2681179174480195 -0.04427870301986167 -0.18048450894121987 -1.0055063074956334 1.1334091133804105 0.16641779451661415 1.3254897148314746 0.4236544042349177 1.7264364547816544 0.2022612880582214 -0.6987501021113958 -0.18705592198964768 -0.2631544489119485
their 1.5597118218624961 -0.4871886034746409 2.11545273004922 0.6924814032092885 0.9876956295721904 0.3162913009217475 -1.0341109201661227 -0.8903302269312223 -1.4675148968726222 -0.9781080835215911 1.0009947290746168 1.5247601453995738 0.7727926733860325 0.9710502988529888 -0.07835628100438422 0.236730678850453 -0.10394758636235893 1.8847095465706247 -1.6806984068420765 -0.21542800143376312 -0.936777030479745 0.21609524031845295 -0.45618214167767024 -2.342402525582004 -1.2897209319822287 -0.381778728598317 -0.018523649541983093 0.5743938977174818 -0.10964510036661737 -0.5985373284065383 -0.6547406221164043 -1.8083363364773746 1.0467224624910783 0.37236088121263433 -2.304446903968622 -0.7017222617539287 -0.7100436244823758 0.37053983643189553 0.11960323499310266 1.2260068213440154 1.8060247378282908 0.6177308340323947 -1.4492603610842665 -0.22861631459858933 0.4464213466968191 0.5970681361078346 -1.4754816596339626 -2.013286422046564 0.3659879570334828 -1.0644211496019695 -3.113250456680148 -1.4915417948051632 -0.06090484861823192 -2.6192475784241056 0.0635904989141141 0.5284814422627411 -0.9220923290598103 -0.5668567455679497 1.3899006252060153 0.13116614282988934 0.4969991830544714 -0.11712714848676643 0.5585009306639364 1.455226951455192 0.41134447830109844 0.13735317241007527 -1.5845190892759948 0.41985942586582614 -0.5961582834111196 -0.8279442560172736 3.2175684705924676 0.5209214832427495 1.1320610730901646 0.23069595861561132 0.6202792437584627 1.3838157350532974 0.8679251956923748 -1.8648750441147932 -0.8907910193023674 0.794802888908637 -0.9019095406340404 0.8652695920560706 -0.8790610974147387 0.2996771985157905 -0.43572659787050233 -1.5021850447264466 1.7406932246366449 1.3898506036701446 0.18042550296997598 -0.22272249854569298 -2.1825089758763707 -0.17143727770139955 0.7981657555609256 -0.24696022263133208 0.22126826341155342 0.19311486555016338 -0.012439321387350502 0.009482352844182057 0.8533889438331443 -0.06145546396116765
were -0.20407184164878012 0.6104897300462484 1.2254232996598156 1.2783398674503164 -0.4358497011906728 0.4002030625632499 0.33315001275624045 -0.17548610440219248 -0.5865637903243128 1.3132041341908112 0.6244473924962477 0.49671455070734366 0.3079596522220921 -0.3797007733153614 -0.33178304143948856 0.9987444569409301 -0.5219787051725358 -0.17918463587299407 -1.2832602383163807 0.2472535751758484 -0.7827828278659145 0.6906764521237966 0.2698426052171662 -1.897689529099155 -0.6779213938467002 -3.0058233257472122 -0.3922847451142461 -3.015014380747789 -0.08175283862307184 0.06157939626339502 0.9082909321057027 -0.33371542797861065 0.4483752158441972 1.0305690428051177 0.2510032076589565 0.15189478054915662 -1.3656127606251065 -0.7523611263976944 1.4447493475841309 0.10481075997125838 0.8489655928545358 -1.4264925341354824 0.5950752724320453 -0.15401557333138505 0.7104298687305105 0.7751050642847145 2.288017481105478 -0.4483408732737521 -0.027417364952000353 1.1307573591565754 -0.053718518395512824 0.45891542050397993 0.518662777500428 -1.0623173940597865 0.6596227458614026 0.621722478201004 -0.33021549442884407 -1.1439735330015741 1.695186079002402 -1.9218354099903163 -1.4727716358942744 -0.691001562453899 0.29337754845320485 0.21735745034130044 -0.9260269306382631 0.4094566161518737 -2.6438063989226013 0.20143796666782807 -2.3541487032757744 0.1964957941078485 -0.2362565412569359 0.5872205640914433 2.421480843330948 1.7671925457132562 -1.458518275448538 -0.19730134360862134 -1.0619490456597065 -1.6146170752122053 -1.5571115816650383 1.473831221142066 -0.6861859664725108 -0.4784271511938227 -0.72126763513828 -0.7617276555434289 -0.11528782543054565 0.5453406591805663 0.004969364307627891 -0.8634370097217317 -0.3676707514979882 -0.14669673688177925 -0.8713547891507543 -0.8145286731987216 1.0771213343649417 -1.1719825713928906 -0.03621784155365654 1.4711105413523942 0.6105625521058441 0.17364132296175103 0.5748239542663414 0.09580763991136997
will 0.5850104470932853 -1.673722203566575 -0.9486240512236683 -0.007378685317914108 -0.05550161064260453 0.37136037495643837 0.31430323269451865 -1.675621898684152 -0.8278631215125147 -1.491136466776596 1.9408284297315077 0.43934618279695853 0.48258859542697186 -2.082866036252907 0.5878441779990643 1.9605800797284056 0.3155056843709976 -1.6975060009910208 0.5962961791488293 -2.005554921180162 0.4637827525021275 0.09115405520168506 -0.38025315560512996 0.01512725617678129 -0.28254098627490765 0.8779078606427109 -1.9519557000569494 1.4016938502245009 0.6568423192386378 -1.2969695355140822 0.8534452413784688 -0.33873050318536724 1.7059116867342423 0.051095317843837 -1.1282945554502506 1.7121206547347187 0.05513802499391399 -0.323223151420201 -1.1747605877948974 -0.6714722955726411 0.6819600539141061 1.9188099284423374 -1.51981604803495 -0.062149325975447076 0.971307537588085 -0.9571885415197289 0.3910508896280842 -0.9829706652487735 0.6704206769793905 -0.0606602455282544 0.6248121634828155 2.2107388457969486 -0.7136477560231316 1.7411241304458287 2.0505922011035596 -2.1378187353114164 0.13181890984895742 1.3442698084443487 -1.0839667911758206 -0.5544444197330531 -1.7905241164011714 1.8294012862666515 0.8861047476500203 0.5104322370043558 -1.40796135885329 -1.5860919897670107 -0.27784484725634156 -1.0032096339829593 2.333737057985212 -0.17912900413042893 -0.20935003602984698 0.11632223387980387 -0.20246771583405265 0.3561154337537987 1.7337874086411227 -2.1270212238318957 0.6333579707129742 -1.123882855661119 1.0308496748390206 1.1253396716501838 0.9411891594124989 0.485643258342539 -1.0870798771693773 2.444198434935468 -1.4658723622213934 1.312909545460626 -0.40764810326900996 -0.7600450643596406 1.212348051979299 0.6298985203408731 0.6850394302477443 0.06349647113988616 0.42036791353516884 0.6686583907309802 1.007184949469598 0.37338544798767864 -1.4227378476744295 0.18854953240484337 2.20335237042311 -1.907853083655639
would 1.7203602870190513 0.2452187577943563 -0.7991055017813771 -2.5484570218547984 1.214118893121995 -0.9937184021183755 -0.3833507463685154 -1.6946655826898893 -0.005298452559095952 0.8266841418392793 2.7901222577420666 -0.7919759567046132 0.912125206268723 -1.5847819679545674 -0.18748022624059027 -0.47567781907912005 0.5176283428621322 -1.6689287924720388 1.0556053994628551 -2.157456881553087 0.4296713719250401 -0.9107637391451243 0.3679405852395966 0.5131513398507352 -0.11238870952052836 -0.3600679453551377 -0.7858315349988133 0.6841962630205214 -0.06872549844935052 0.23278081162336894 -0.054373940302210516 1.246698897020245 0.46910967500595563 -0.4142942765918548 -1.9177316110380191 1.2797579790679097 -0.44026012762568634 -0.40663374230727073 -0.09247349975836028 -1.1293342555068757 -0.5469350142545341 0.01383446946273073 -0.6682021092265088 0.918082398704023 0.4385097241725576 -0.6018369146467125 0.5964948828388767 -0.35782198146238126 0.3118269746631062 0.6016565834378863 -0.3189674093616898 1.3016744336799442 0.4441484480669869 0.2306830209077504 -0.22620889330924404 -1.9455477411250153 -1.5902125940668292 0.33247521153387216 0.0249570053885199 1.658658755430216 -1.5016335161967036 0.44247570814928094 1.41268299519717 0.42792438826473184 -0.5983970068177675 0.002916885424201085 -0.4747654805723816 -0.9731929732926516 2.030617398561384 -0.6728491258121192 -0.3104132875252083 0.3397607352378361 -0.7477133781656338 2.027734342397521 0.6777054579766023 1.2555858785622085 -0.7053051304833149 -1.7827800171448835 1.5871622954788216 1.0234235968973762 0.17904555122983026 0.7858891990278113 -0.3311138694598742 1.9249051266774115 -1.3318908959280584 0.05966074586836957 -0.6873820889314703 -0.6765561827716584 0.37175703854775 -0.28630792892937523 -0.635266483439008 0.40507581898877837 -0.8499793836564511 1.964664891451958 -0.9665584296464604 -0.1359724216374129 2.053627360951364 -0.37533458430438893 0.5962964083373863 -2.1135355997536616
been 0.2426802595341575 0.44468135039613244 1.1765617960587413 -0.0019544018730326684 0.7862197708838359 -0.5198724434086587 -0.053160706197369 1.3319524211553255 0.24466926407517758 0.143023150349392 1.663979517492433 1.318497914526466 -1.3671779272189784 -0.8256631129550251 -0.08509786435170477 -0.6132341931521486 -1.079484133963582 -0.30531545519367276 -2.837686550762975 0.3943391077218918 -1.7080818762896817 -1.5619648085001354 -0.2635036752384231 -0.9857720810553317 0.3433550503500008 -1.5344471450984085 -0.05448234988967487 -0.06516533956896665 -0.174926014673258 0.4609059069908006 -0.9005029106868083 -0.11500121684250797 -0.7796801420888472 0.05475009584752963 -0.9687025230176944 0.5943312670317769 0.20460578755356632 -1.6842150764213455 1.5342383307384277 -1.5284536326431062 -3.616076163775408 -1.4276197771774746 0.45276122581072265 0.7468364661249824 0.4624464726771963 1.1746615818857278 2.027714818256052 0.19781640633688174 -0.5046339924007975 1.0668262516355183 1.4948282615052764 -1.478231958417529 1.9348976283839119 0.5897571813644078 -1.0484208890301074 -1.2907182390193024 -0.8854066238748738 1.8746324144929327 -0.740086435817697 -0.45118586956596946 -0.5069441112322566 -0.7001547497288318 -1.6769669204980204 -0.6846190158375937 0.95361490028291 0.17246327351385793 0.2711925794537872 0.922755973183331 -1.5367817456112844 -0.6785789501166999 -1.9094516500282601 1.1327556516768924 1.4817248075261997 0.9832895429743035 -1.6816338388411771 0.19031698949265125 -1.8808149409310078 -0.9661206858231672 1.20104900946045 -0.5257015976521845 0.6283395185662465 0.9434100892637122 -2.6529219096019334 -1.5831766671076837 0.9990302771676447 0.3572264333161559 0.08391091045531711 -0.44966365185353707 1.0621294459841208 0.4169708212518229 -0.6249318128953374 -0.4940229945450046 -1.2624028155297726 -0.9695064275559155 0.3690559535742121 -0.04202343153083027 -0.9159736741667389 -2.4243350263324346 0.06212149665954893 -0.9281091261361077
them 0.5342703242981803 -2.05869870979979 0.7525747650757701 -0.16843030884114943 1.1223177265875712 2.0937726333430504 0.4135305419215084 -0.13645328751529062 0.4515691454380926 0.551393891061081 0.6175039878217177 -0.5669186527991261 -0.46344681950718647 0.2606793111992565 -1.3538339287857564 -0.8717950890719484 0.9093911955308944 1.9002595639274973 -0.3222879888084766 -0.7173820801080795 -1.3523369183657925 -0.2537736431721095 -2.804988671914868 0.46494939144642317 -0.8179095182172752 0.20864622629288782 0.28371435986240795 1.2422019535951674 -0.34863594366266837 0.7999636505401475 -0.493787666632014 0.6112261821192745 0.4065165427484941 0.730376865509433 -1.5128036420591373 -0.4528536473187328 -1.5579036627628629 -0.9677870349632156 0.13955426933038484 -0.4899012887977388 0.4402172641687753 0.6062955637229465 -0.7121098111956555 -0.4911480123486809 -0.14931166770422935 -0.3215463408113396 0.5479712183643894 -0.35182727411641873 1.0308426921695149 -0.10832270204815615 -0.020397216011374716 -1.2319099226280392 -0.05524562601538768 -0.14061342958796952 0.21250550662457096 -2.362516325185684 -0.8838891492235371 -0.8228796757132134 1.1409583692321994 0.13483531535529522 -0.5275871070666072 0.43421337189516107 1.7973056882589986 -0.6460042063245016 -0.28370957595915547 0.5764331872349425 -0.11588446151653828 -1.2074241472848086 -1.0692030960904104 -0.9601883065200507 1.4239700571250602 0.9114753152968876 -0.35584080824700126 -0.26512223166101145 0.10741064565493941 -0.30621567421031354 1.3893829274161602 -0.6968103902413496 -1.1130222881851188 0.44258840350176143 -0.7772873744772716 0.6936746742818701 -0.784828299792058 0.8046171122654853 -1.1029983311544989 -0.46575015588672497 1.9833322894254632 -0.8788249620494599 0.27504281015610266 0.43730721079344886 -1.132508129490415 0.8525600142211698 0.5434075167685062 0.1591515243951114 0.3200345307112055 0.1426978297320634 0.8577823530549408 -0.19060232598453422 1.7112552310645897 -1.197208600089355
